5 100
0 0.000594 -0.001767 0.003314 -0.003982 0.001543 0.004944 0.004222 0.002259 -0.004742 -0.000979 0.000440 0.001501 0.002968 -0.004404 0.000164 0.002187 0.003862 0.004687 0.003101 -0.001366 -0.003269 -0.005007 -0.000841 -0.000359 -0.001771 -0.004516 -0.001440 -0.004603 0.004574 -0.004848 0.001089 0.005060 -0.004938 -0.000510 -0.004058 0.004055 0.003322 -0.003845 0.001964 0.002662 0.004696 -0.002072 -0.003538 -0.003339 0.002515 0.000400 -0.003628 0.002632 -0.005497 -0.001779 -0.004079 -0.001601 0.004719 0.003859 -0.001020 -0.003017 0.000665 0.004309 0.001474 -0.001022 -0.002325 -0.003899 0.004223 0.003127 0.001411 0.003507 0.004452 -0.004361 -0.001993 0.000645 -0.003593 -0.001613 0.003693 -0.005172 -0.001736 -0.002633 0.001926 -0.003033 -0.002216 0.003572 -0.004132 0.003545 0.003677 -0.002143 0.005085 0.001232 -0.004931 -0.003820 -0.002502 -0.003795 -0.003526 0.001285 -0.001789 -0.002088 -0.002190 -0.005399 0.002907 -0.000706 0.001214 -0.002156
1 -0.001592 0.003857 0.001428 0.003130 -0.000967 0.003802 -0.002177 -0.001772 -0.004479 0.004909 0.003823 -0.002837 -0.003687 0.001709 -0.001844 0.001435 0.001529 0.005509 -0.001339 -0.003622 -0.004298 -0.002448 -0.004044 -0.003862 0.000750 -0.002407 0.001748 0.001528 -0.003474 -0.003650 -0.001104 0.003685 -0.001034 -0.003660 0.002353 0.003859 0.003236 -0.001427 -0.004388 -0.001405 0.001061 -0.002323 0.000925 -0.001170 0.003646 0.000386 0.004115 -0.004026 0.000347 -0.002047 0.000009 -0.000340 0.005531 0.002246 0.002367 0.001958 0.005018 0.004964 0.001287 0.002234 -0.004982 -0.001688 0.004878 0.005197 0.003067 -0.003684 0.001960 0.000915 -0.002867 -0.003021 -0.003465 0.004538 0.004908 -0.001338 0.005123 0.003414 -0.003448 0.004570 0.001631 -0.004501 -0.002788 0.000243 0.003719 -0.004409 -0.000350 -0.003762 -0.005869 -0.000992 -0.001533 -0.003232 0.000646 0.002303 0.004604 -0.000623 -0.000290 0.000921 0.000693 -0.004120 0.000538 -0.004570
2 0.003637 0.003028 -0.001996 -0.002340 0.001492 -0.002716 -0.004558 0.001531 -0.001977 -0.002378 0.003574 0.004764 0.002648 0.002927 -0.004119 0.003189 -0.000042 0.002397 -0.003935 -0.004818 0.002006 -0.000300 0.002410 -0.004107 -0.001756 0.004513 0.002804 0.000990 0.000718 -0.000804 0.003290 0.003695 -0.000621 0.002440 -0.000577 0.003835 -0.004699 0.003674 -0.005098 0.002932 0.002602 0.004062 0.000067 -0.004098 0.002986 0.003238 -0.003450 -0.002011 0.004068 -0.001951 0.003540 0.001522 0.006234 0.003572 0.000843 0.002681 -0.004297 -0.001741 0.000808 0.001900 -0.004900 -0.004158 -0.002231 0.005010 0.003651 -0.003870 -0.003913 -0.005000 -0.001840 0.004557 -0.004283 -0.004911 0.004256 0.004436 0.003781 0.004320 -0.000748 -0.004281 0.000127 -0.002576 0.000240 0.000550 0.005106 -0.002339 -0.004431 0.001574 -0.000748 0.003952 -0.004554 -0.002048 -0.002894 -0.003355 0.001045 0.000225 0.002140 -0.003392 -0.000585 -0.000183 -0.001858 -0.003833
3 0.003936 -0.001608 0.002691 -0.003431 0.003811 -0.001231 -0.004336 -0.000731 0.004271 -0.002756 -0.000394 -0.001709 0.002323 0.004442 -0.003841 0.002333 -0.003558 0.003516 0.000607 -0.004134 0.002244 -0.004055 -0.001641 -0.005506 0.003754 -0.001463 0.003234 0.004143 -0.004220 -0.001087 0.002638 -0.004283 -0.004019 -0.004072 0.001179 -0.001886 -0.003636 -0.005187 -0.003512 -0.000905 0.005424 -0.001322 -0.001680 0.002730 0.000968 -0.003967 0.003862 -0.003224 -0.003127 -0.004403 0.004211 -0.001359 0.000810 0.004303 0.004785 0.004156 0.001830 0.003411 -0.000568 0.001959 -0.000821 0.000410 0.001462 -0.002245 -0.003824 -0.004115 0.003974 -0.004515 -0.002138 -0.000862 0.003848 -0.002212 0.003386 -0.003641 0.000117 -0.003427 -0.003095 0.004433 -0.000375 0.001955 -0.005033 0.005032 0.004075 -0.001877 0.003565 0.003214 -0.003730 -0.000094 0.001493 -0.001939 -0.004880 0.004843 -0.004039 -0.003244 0.000443 -0.000067 -0.004442 0.002841 -0.003918 -0.004433
4 -0.000111 0.000858 -0.004720 -0.004190 0.004514 0.002838 -0.004311 -0.004937 0.003054 0.002927 0.001558 0.002026 -0.000096 -0.000023 -0.000372 0.001628 -0.002145 -0.003858 0.003736 -0.002375 0.004870 -0.001923 -0.002492 -0.000017 0.002608 0.001545 -0.003686 0.000323 -0.003181 -0.004900 0.004757 -0.004011 -0.002269 0.000778 0.000704 0.000230 -0.000922 -0.000164 -0.002097 -0.003925 0.005950 0.000353 0.003818 -0.000765 0.003054 0.000268 -0.000266 0.002677 -0.000326 0.000497 0.001812 0.000769 0.005134 0.001953 -0.000677 -0.001088 0.001860 -0.000531 -0.004531 0.003174 -0.003367 -0.003082 0.004206 -0.000305 0.003941 -0.001752 -0.003910 -0.003953 0.004054 0.000019 -0.001481 0.002762 -0.004362 0.001226 -0.003810 0.003538 -0.001415 0.002800 -0.001524 -0.002964 0.002452 -0.000949 0.001520 -0.002126 -0.003956 0.003999 -0.005857 -0.000152 0.001101 -0.005674 -0.004370 -0.001317 0.002119 0.000856 0.004679 -0.005439 -0.001808 -0.003551 -0.001502 -0.004921
